<GAP_2021_3_17_60_10_24_22_61>
<Potential label="GAP_2021_3_17_60_10_24_22_61" init_args="IP GAP label=GAP_2021_3_17_60_10_24_22_61"/>
<GAP_params label="GAP_2021_3_17_60_10_24_22_61" gap_version="1608019566">
  <GAP_data do_core="F">
    <e0 Z="1" value="3.2100000000000000"/>
    <e0 Z="2" value=".00000000000000000E+000"/>
    <e0 Z="3" value=".00000000000000000E+000"/>
    <e0 Z="4" value=".00000000000000000E+000"/>
    <e0 Z="5" value=".00000000000000000E+000"/>
    <e0 Z="6" value=".00000000000000000E+000"/>
    <e0 Z="7" value=".00000000000000000E+000"/>
    <e0 Z="8" value="4.5999999999999996"/>
    <e0 Z="9" value=".00000000000000000E+000"/>
    <e0 Z="10" value=".00000000000000000E+000"/>
    <e0 Z="11" value=".00000000000000000E+000"/>
    <e0 Z="12" value=".00000000000000000E+000"/>
    <e0 Z="13" value=".00000000000000000E+000"/>
    <e0 Z="14" value=".00000000000000000E+000"/>
    <e0 Z="15" value=".00000000000000000E+000"/>
    <e0 Z="16" value=".00000000000000000E+000"/>
    <e0 Z="17" value=".00000000000000000E+000"/>
    <e0 Z="18" value=".00000000000000000E+000"/>
    <e0 Z="19" value=".00000000000000000E+000"/>
    <e0 Z="20" value=".00000000000000000E+000"/>
    <e0 Z="21" value=".00000000000000000E+000"/>
    <e0 Z="22" value=".00000000000000000E+000"/>
    <e0 Z="23" value=".00000000000000000E+000"/>
    <e0 Z="24" value=".00000000000000000E+000"/>
    <e0 Z="25" value=".00000000000000000E+000"/>
    <e0 Z="26" value=".00000000000000000E+000"/>
    <e0 Z="27" value=".00000000000000000E+000"/>
    <e0 Z="28" value=".00000000000000000E+000"/>
    <e0 Z="29" value=".00000000000000000E+000"/>
    <e0 Z="30" value=".00000000000000000E+000"/>
    <e0 Z="31" value=".00000000000000000E+000"/>
    <e0 Z="32" value=".00000000000000000E+000"/>
    <e0 Z="33" value=".00000000000000000E+000"/>
    <e0 Z="34" value=".00000000000000000E+000"/>
    <e0 Z="35" value=".00000000000000000E+000"/>
    <e0 Z="36" value=".00000000000000000E+000"/>
    <e0 Z="37" value=".00000000000000000E+000"/>
    <e0 Z="38" value=".00000000000000000E+000"/>
    <e0 Z="39" value=".00000000000000000E+000"/>
    <e0 Z="40" value=".00000000000000000E+000"/>
    <e0 Z="41" value=".00000000000000000E+000"/>
    <e0 Z="42" value=".00000000000000000E+000"/>
    <e0 Z="43" value=".00000000000000000E+000"/>
    <e0 Z="44" value=".00000000000000000E+000"/>
    <e0 Z="45" value=".00000000000000000E+000"/>
    <e0 Z="46" value=".00000000000000000E+000"/>
    <e0 Z="47" value=".00000000000000000E+000"/>
    <e0 Z="48" value=".00000000000000000E+000"/>
    <e0 Z="49" value=".00000000000000000E+000"/>
    <e0 Z="50" value=".00000000000000000E+000"/>
    <e0 Z="51" value=".00000000000000000E+000"/>
    <e0 Z="52" value=".00000000000000000E+000"/>
    <e0 Z="53" value=".00000000000000000E+000"/>
    <e0 Z="54" value=".00000000000000000E+000"/>
    <e0 Z="55" value=".00000000000000000E+000"/>
    <e0 Z="56" value=".00000000000000000E+000"/>
    <e0 Z="57" value=".00000000000000000E+000"/>
    <e0 Z="58" value=".00000000000000000E+000"/>
    <e0 Z="59" value=".00000000000000000E+000"/>
    <e0 Z="60" value=".00000000000000000E+000"/>
    <e0 Z="61" value=".00000000000000000E+000"/>
    <e0 Z="62" value=".00000000000000000E+000"/>
    <e0 Z="63" value=".00000000000000000E+000"/>
    <e0 Z="64" value=".00000000000000000E+000"/>
    <e0 Z="65" value=".00000000000000000E+000"/>
    <e0 Z="66" value=".00000000000000000E+000"/>
    <e0 Z="67" value=".00000000000000000E+000"/>
    <e0 Z="68" value=".00000000000000000E+000"/>
    <e0 Z="69" value=".00000000000000000E+000"/>
    <e0 Z="70" value=".00000000000000000E+000"/>
    <e0 Z="71" value=".00000000000000000E+000"/>
    <e0 Z="72" value=".00000000000000000E+000"/>
    <e0 Z="73" value=".00000000000000000E+000"/>
    <e0 Z="74" value=".00000000000000000E+000"/>
    <e0 Z="75" value=".00000000000000000E+000"/>
    <e0 Z="76" value=".00000000000000000E+000"/>
    <e0 Z="77" value=".00000000000000000E+000"/>
    <e0 Z="78" value=".00000000000000000E+000"/>
    <e0 Z="79" value=".00000000000000000E+000"/>
    <e0 Z="80" value=".00000000000000000E+000"/>
    <e0 Z="81" value=".00000000000000000E+000"/>
    <e0 Z="82" value=".00000000000000000E+000"/>
    <e0 Z="83" value=".00000000000000000E+000"/>
    <e0 Z="84" value=".00000000000000000E+000"/>
    <e0 Z="85" value=".00000000000000000E+000"/>
    <e0 Z="86" value=".00000000000000000E+000"/>
    <e0 Z="87" value=".00000000000000000E+000"/>
    <e0 Z="88" value=".00000000000000000E+000"/>
    <e0 Z="89" value=".00000000000000000E+000"/>
    <e0 Z="90" value=".00000000000000000E+000"/>
    <e0 Z="91" value=".00000000000000000E+000"/>
    <e0 Z="92" value=".00000000000000000E+000"/>
    <e0 Z="93" value=".00000000000000000E+000"/>
    <e0 Z="94" value=".00000000000000000E+000"/>
    <e0 Z="95" value=".00000000000000000E+000"/>
    <e0 Z="96" value=".00000000000000000E+000"/>
    <e0 Z="97" value=".00000000000000000E+000"/>
    <e0 Z="98" value=".00000000000000000E+000"/>
    <e0 Z="99" value=".00000000000000000E+000"/>
    <e0 Z="100" value=".00000000000000000E+000"/>
    <e0 Z="101" value=".00000000000000000E+000"/>
    <e0 Z="102" value=".00000000000000000E+000"/>
    <e0 Z="103" value=".00000000000000000E+000"/>
    <e0 Z="104" value=".00000000000000000E+000"/>
    <e0 Z="105" value=".00000000000000000E+000"/>
    <e0 Z="106" value=".00000000000000000E+000"/>
    <e0 Z="107" value=".00000000000000000E+000"/>
    <e0 Z="108" value=".00000000000000000E+000"/>
    <e0 Z="109" value=".00000000000000000E+000"/>
    <e0 Z="110" value=".00000000000000000E+000"/>
    <e0 Z="111" value=".00000000000000000E+000"/>
    <e0 Z="112" value=".00000000000000000E+000"/>
    <e0 Z="113" value=".00000000000000000E+000"/>
    <e0 Z="114" value=".00000000000000000E+000"/>
    <e0 Z="115" value=".00000000000000000E+000"/>
    <e0 Z="116" value=".00000000000000000E+000"/>
    <e0 Z="117" value=".00000000000000000E+000"/>
    <e0 Z="118" value=".00000000000000000E+000"/>
  </GAP_data>
  <gpSparse label="GAP_2021_3_17_60_10_24_22_61" n_coordinate="3">
    <gpCoordinates label="GAP_2021_3_17_60_10_24_22_611" dimensions="1" signal_variance=".50000000000000000" signal_mean=".00000000000000000E+000" sparsified="T" n_permutations="1" covariance_type="1" n_sparseX="10" sparseX_filename="GAP.xml.sparseX.GAP_2021_3_17_60_10_24_22_611" sparseX_md5sum="ef443774141dad353b4a1abb5a101b0d">
      <theta>  0.10000000000000000E+001 </theta>
      <descriptor>distance_2b cutoff=4.0 covariance_type=ard_se delta=0.5 theta_uniform=1.0 sparse_method=uniform               n_sparse=10 Z1=8 Z2=8</descriptor>
      <permutation i="1">1  </permutation>
      <sparseX i="1" alpha="8180753.8818002325" sparseCutoff="1.0000000000000000"/>
      <sparseX i="2" alpha="-7899863.7940727435" sparseCutoff="1.0000000000000000"/>
      <sparseX i="3" alpha="132293.91844933300" sparseCutoff="1.0000000000000000"/>
      <sparseX i="4" alpha="-542999.04549558146" sparseCutoff="1.0000000000000000"/>
      <sparseX i="5" alpha="-176394.14602973961" sparseCutoff=".55984864619000430E-001"/>
      <sparseX i="6" alpha="370541.49547512562" sparseCutoff="1.0000000000000000"/>
      <sparseX i="7" alpha="-445098.74124286819" sparseCutoff="1.0000000000000000"/>
      <sparseX i="8" alpha="-138269.56203145682" sparseCutoff="1.0000000000000000"/>
      <sparseX i="9" alpha="21437.145229816259" sparseCutoff="1.0000000000000000"/>
      <sparseX i="10" alpha="331155.65312526899" sparseCutoff="1.0000000000000000"/>
    </gpCoordinates>
    <gpCoordinates label="GAP_2021_3_17_60_10_24_22_612" dimensions="1" signal_variance=".50000000000000000" signal_mean=".00000000000000000E+000" sparsified="T" n_permutations="1" covariance_type="1" n_sparseX="10" sparseX_filename="GAP.xml.sparseX.GAP_2021_3_17_60_10_24_22_612" sparseX_md5sum="966d7d2f12fbe22a25db7f276472df27">
      <theta>  0.10000000000000000E+001 </theta>
      <descriptor>distance_2b cutoff=4.0 covariance_type=ard_se delta=0.5 theta_uniform=1.0 sparse_method=uniform               n_sparse=10 Z1=8 Z2=1</descriptor>
      <permutation i="1">1  </permutation>
      <sparseX i="1" alpha="596149.07197318075" sparseCutoff=".41100668692307052"/>
      <sparseX i="2" alpha="-1720221.4761105662" sparseCutoff=".72500401526267466E-001"/>
      <sparseX i="3" alpha="-1055382.0081968452" sparseCutoff="1.0000000000000000"/>
      <sparseX i="4" alpha="66403.495543157871" sparseCutoff="1.0000000000000000"/>
      <sparseX i="5" alpha="-2164435.0604556240" sparseCutoff="1.0000000000000000"/>
      <sparseX i="6" alpha="2193585.7627285896" sparseCutoff="1.0000000000000000"/>
      <sparseX i="7" alpha="-214929.20810925539" sparseCutoff="1.0000000000000000"/>
      <sparseX i="8" alpha="1564876.3617181024" sparseCutoff="1.0000000000000000"/>
      <sparseX i="9" alpha="283002.04593619559" sparseCutoff="1.0000000000000000"/>
      <sparseX i="10" alpha="-793402.36280662240" sparseCutoff="1.0000000000000000"/>
    </gpCoordinates>
    <gpCoordinates label="GAP_2021_3_17_60_10_24_22_613" dimensions="1" signal_variance=".50000000000000000" signal_mean=".00000000000000000E+000" sparsified="T" n_permutations="1" covariance_type="1" n_sparseX="10" sparseX_filename="GAP.xml.sparseX.GAP_2021_3_17_60_10_24_22_613" sparseX_md5sum="8ffa1cacc3389b7a2dfb60149ce4c975">
      <theta>  0.10000000000000000E+001 </theta>
      <descriptor>distance_2b cutoff=4.0 covariance_type=ard_se delta=0.5 theta_uniform=1.0 sparse_method=uniform               n_sparse=10 Z1=1 Z2=1</descriptor>
      <permutation i="1">1  </permutation>
      <sparseX i="1" alpha="264848.81453584577" sparseCutoff="1.0000000000000000"/>
      <sparseX i="2" alpha="-5746374.4345290083" sparseCutoff="1.0000000000000000"/>
      <sparseX i="3" alpha="673160.89510429534" sparseCutoff="1.0000000000000000"/>
      <sparseX i="4" alpha="-1493290.3716328521" sparseCutoff="1.0000000000000000"/>
      <sparseX i="5" alpha="5925978.8561775517" sparseCutoff="1.0000000000000000"/>
      <sparseX i="6" alpha="-182617.30767610451" sparseCutoff="1.0000000000000000"/>
      <sparseX i="7" alpha="-118719.53244505075" sparseCutoff=".22825652467435908"/>
      <sparseX i="8" alpha="-649840.39327888621" sparseCutoff="1.0000000000000000"/>
      <sparseX i="9" alpha="1205545.8553770878" sparseCutoff="1.0000000000000000"/>
      <sparseX i="10" alpha="29702.832915248677" sparseCutoff="1.0000000000000000"/>
    </gpCoordinates>
  </gpSparse>
  <command_line><![CDATA[ energy_parameter_name=energy force_parameter_name=forces do_copy_at_file=F sparse_separate_file=T gp_file=GAP.xml at_file=train.xyz default_sigma={0.008 0.04 0 0} gap={distance_2b cutoff=4.0 covariance_type=ard_se delta=0.5 theta_uniform=1.0 sparse_method=uniform add_species=T n_sparse=10}]]></command_line>
</GAP_params>
</GAP_2021_3_17_60_10_24_22_61>
